-0.35160547237082834,0.44126501521528205,0.13379902208826752,-0.029051075004677986,-0.08525018221821098,0.15033449106951877,-0.14951021902558428,0.2723073838902476,-0.10995470233839325,0.4003576072187955,-0.19578896887823444,-0.14197797230932457,0.4406507076169595,0.09561939245198708,0.446776684992938,0.14107202989222714,-0.27008029094347286,-0.10267836768073733,0.49734420983308425,0.3325324324954022,-0.36924027102317875,-0.29843533544787704,-0.2882559969159995,-0.13034971774538556,-0.2104277334889034,-0.3071337599527053,-0.10757078042495763,0.022197225606788266,0.17614238034526497,-0.3378292825480551,0.07654349157970651,0.3045682141567178,-0.2845533468981862,-0.09990314631374322,0.20677814329819771,8.441638546056214E-4,-0.22174964216257853,0.14868193539641222,-0.30531299402423334,0.26754610160999326,-0.30227700897405646,-0.021457317332536998,-0.006160363911430604,-0.3019201527718727,0.07719513064289697,0.4949521625116205,0.41281729150922397,0.09288657874035985,-0.47148169907308807,0.058763627335738415,-0.07194614850070465,-0.17816826728421226,-0.4329208548893209,0.44102315395437464,-0.06440454585112558,-0.11839608276702664,0.44918511759627455,0.011239302009091014,-0.29041506824194396,0.0922228830357019,-0.0018049354300786115,-0.01346264443455765,-0.2887145929075293,0.07085125770862344,0.316272601185628,0.41932351902508264,0.05392789901083641,0.4297422424360947,-0.1733100062791215,-0.24660694740569283,-0.37545777885734144,-0.13720800062306518,-0.10733412454199738,-0.3782947587455903,0.20568746438490712,0.44090208008633064,-0.14791134026425765,0.11611323617136347,0.3908114348997221,-0.3675043403043039,0.5225494699986053,0.3809295904583884,-0.17932916400193652,-0.07176036267558611,-0.35313001978243647,0.23903115965851357,0.4405677929080224,-0.40847676645089753,-0.2654141259374571,-0.25728494378391453,-0.002556000017939056,0.36277939046996877,0.28555468839426174,0.020542120662898636,0.1972224916906932,-0.34399934419656575,0.37763952081761454,-4.5899965355171137E-4,0.235054680476869,0.23843679675029456,-0.37607882501131507,-0.10680578627534315,0.3200250717939731,0.42475225379587117,-0.3014534790484897,0.1480329738369493,-0.26921861863077107,0.2718328296549736,0.40076821392700623,-0.5010677147230653,-0.3267752851312542,0.024949417832999008,0.1631328584942075,-0.059627076880313434,0.47024470058117235,-0.48373880111444,0.2411709538188671,0.3368866607838983,0.1766821985611441,-0.2900741848081533,-0.010683584615053832,0.2884545153057109,-0.10650122550638276,0.06540583498224845,0.02060080783564531,0.016173246993411605,0.2105089999359005,-0.26159066497222777,0.40790462935594973,0.11121686239784273,0.30828940950241823,0.23969817537505003,0.006633221774940688,-0.1499741883050754,-0.3777280734444545,0.3934681162682657,-0.1784680586052415,-0.31836481426806534,0.15477121665133203,-0.1550757663798795,0.3813156261455962,0.026182104968713475,0.2056795781364619,0.18346710534560975,-0.39440887130641283,-0.3467842837944058,0.4104116852623508,-0.22845276876351267,0.25458329805747054,-0.14015524469748858,-0.16163294723307348,-0.37274493888281235,-0.452338380878486,-0.07380458864904899,0.016539493465453307,-0.0824222626833817,-0.2065654579867592,-0.30072585024094284,0.17524872413228548,-0.4109336392185618,-0.32922371789116767,0.011160787374239069,0.2418922001784826,0.08516578934117044,0.10667394021385185,0.3933655891979369,-0.37334506521011435,0.08782685641618067,-0.39560276817371853,-0.018928869637313203,-0.45417732932878035,0.43311735088831776,0.28042916347415614,-0.28797584883116234,-0.23451742499594752,0.06261998918788769,-0.24868122456235742,0.1620081769135024,-0.46353262601044987,-0.034696638620595965,0.11381979713847445,0.295869667555163,-0.016455830176575786,-0.39545790126374447,0.10384939918759215,0.079219880237903,-0.26006067862367976,-0.07916872501260674,0.11404953616692833,0.014811744810383505,0.04570518155421845,0.4302690351752818,0.1116154134964065,0.2840005186091252,-0.1343444917202069,0.17526245222209516,-0.41506552149692433,0.06428620370996556,-0.12292484455625033,-0.6092159178858951,-0.5478333238841913,-0.4022089454023176,-0.4803119156891195,0.3308941563532854,-0.11411937223091004,0.17184540934226303,0.40709466490939483,0.14238047110443708,-0.4544448101599844,-0.20346104831368889,-0.1439155781651476,0.17479541821091124,0.44141411436881833,0.4314082370850594,-0.1181383024883537,0.11451586894777722,0.2232827360637608,0.30768225876639616,-0.38963350738733565,0.13103061381372502,0.19696181723918632,-0.056747688398608956,0.09938608535862072,-0.009716014551244748,-0.19584117931489559,0.13084873914928055,-0.03774815238403536,-0.2893670714529804,0.4828919635995547,0.3373692159533333,0.08561610748679162,0.11886617610305777,-0.3997315192870494,-0.14223405894894833,-0.03242456028829657,-0.1142288428338632,0.4950688466958847,-0.46802775606953506,-0.2884136787944762,-0.24971575735276733,-0.44330324303507673,0.3983675689988779,0.2605749577129802,0.34607335410919376,0.30502769684106257,0.18132328076792445,-0.45340197386629366,0.13491992116791948,-0.16802021950229365,-0.29872639626445296,-0.3299317566543723,0.16712296888610503,-0.31807666059453893,-0.35386035743893146,0.26778912376923303,0.08255028796234636,0.07188422917455088,0.42345939310517183,0.27291824156531247,0.4869010351283401,0.04823693639372578,0.5124082406461575,0.6568568258723415,-0.28017208290969886,-0.4408471926428425,0.038300695273740755,-0.31535654160375276,-0.4014592025253472,-0.4299662760167553,0.3626313623531015,0.2931728935705533,-0.33034433054653356,0.37229891063889475,-0.020902045126151157,-0.4935769220711961,0.2614472441080658,-0.048445437482090924,-0.04238294033113075,-0.017596792460976313,0.2853092351403431,-0.251330725622696,-0.2600545566486121,-0.4217313095882083,-0.2448009357423599,0.2889066645730088,0.08158061702649809,0.30044593413968507,0.0594768735951355,0.007340212192082138,0.13650039082825305,0.36366680254732464,-0.3471575800838169,0.050010977660469545,0.34610665324866174,0.22323696366373988,0.2696643065598674,-0.3363671769139976,0.1542182814967947,0.37261498405341725,0.11403840946551766,0.25645720986315323,-0.2331203700832573,0.05677982460381574,-0.3091730805448452,0.10581251541680552,-0.4616293163316886,-0.5161376918466671,-0.36995350343538497,0.42398334263673854,-0.2413858718778277,-0.2494873211814823,0.058341342179863455,0.17946610667602725,0.45915389716427674,0.15057671450341137,-0.4313593235294069,-0.11455797088994613,-0.4007951039539324,0.3175509283207069,0.10935360137211629,-0.3403935685937487,0.050847802789891317,0.037047102198886316,-0.27157102621202966,0.12063292791983404,-0.05358724506333367,0.11980299618097875,-0.11779702180107592,-0.4118603409414636,0.511888081196743,0.09376548120505397,0.3607525295807506,-0.051018579073148385,0.18616661689888694,-0.12505161925187133,-0.19734329512473922,-0.34783050918806036,0.5110604150893396,0.3454951962104854,-0.24050630989276348,0.18432898615766077,-0.10361787081356122,0.13848674182318027,-0.0913804893246723,0.2950297286206851,0.2486057107865093,0.38332456542821675,-0.053789994418394285,-0.03112401291070766,0.33260822280927277,-0.11890933925572583,-0.32342252278841976,-0.30300837248646384,0.12120168195273141,-0.36876103316003284,-0.2710734551918981,-0.3530598577208694,-0.41086958904224236,0.12833989649569347,0.11462206611940869,-0.1002405380479271,0.09871215185732782,-0.1890533770706732,0.023469054831815734,-0.14272949637855425,0.021332115044449707,-0.224043842243681,-0.5081442427753177,0.23523640772492377,-0.31243472139036166,-0.009128699705962121,0.42071093437234686,0.34322949905311584,0.12865242098492494,0.04260450165150256,-0.2689512870800453,-0.4673804504485293,-0.06694740312317884,0.3460622355583818,0.21402747072713318,-0.5018309084181389,-0.5684196127940773,-0.47004409552503706,-0.16969743228737857,0.36138086053965085,0.4849053029523318,0.3317442551562081,0.35219053574484266,0.21151176261349347,0.19545932365139237,-0.08438903695838562,0.3887230468513655,0.39817721676019135,0.002670907792059524,-0.23706076369745316,-0.45042009949979217,0.27771754545699223,0.4255922102288478,-0.22608204393860656,-0.05202459675405875,0.46652661339512796,0.26955143614317223,-0.23716778016596,-0.008416703543234462,0.4894513117190315,-0.00764942048840819,-0.5319224268438606,0.2930464785918892,0.3501329110405382,0.26963618975639186,-0.19094285589534277,-0.2955099682483549,-0.1640422708170909,0.23089823737065332,-0.2709661131093596,-0.49802605164824676,-0.10394907324700628,0.06783814838521962,-0.2752120192848166,-0.5100753466419627,
-0.05780451685976445,-0.04235585064767552,0.27944022214452136,-0.051753122744570654,-0.036146037144071455,-0.004692754757246085,-0.13118015254148993,-0.043483956414307655,-0.09812961737224533,0.01545751164695274,-0.08394272974730177,0.10669815214853431,-0.17118655988871487,-0.5279764120178271,-0.2820911253390484,0.05408509861547003,0.24455981751023428,0.2600640057488923,-0.202715072916553,0.09848615944104702,-0.11586335026232002,-0.1760402893113823,-0.3289375646132902,0.03769122588749387,0.03603835986662932,-0.2047211375175453,-0.1434485909648469,0.3073194288905002,-0.19214163077070137
